-2.481125761641610195e-01 3.313983986654034930e-01 -3.871563530482992066e-01 -1.796350099509821108e-01 -3.369934647354387858e-01 -6.363692829317635358e-02 2.987703058006219159e-01 1.798262155525614803e-01 1.713589366544142345e-01 -9.719803664434614743e-02 -4.643926261469119576e-02 -2.982685992095878702e-01 -4.766448186421330391e-01 -5.835425594655814230e-01 -1.613384096553102109e-01 -4.028354738841005145e-01 -1.506258843258865832e-01 8.993373759664698153e-02 2.493597619078628813e-02 -3.064986905238031856e-01 3.240928910636849958e-01 7.612764537569906287e-02 5.588979332960178903e-01 -2.368252396502966428e-02 6.620698102696955488e-03 -4.338372445423446799e-01 -2.342193751522829992e-01 -1.221561255863839873e-01 -1.096396587357824914e-01 -2.054704831399913056e-02 -2.357352823273280995e-01 2.817465255496090504e-01 -2.627240522161359837e-01 -3.337228655704595481e-01 -3.678041713047122685e-01 -2.607051677546511903e-01 -4.249795000238129616e-02 2.363942203313451618e-01 -9.640953297185245185e-02 2.035859995063573902e-01 -1.917384167363107017e-01 2.964308234538922115e-01 3.944497250585705106e-01 -6.088726969145307200e-01 1.781180305827539598e-02 3.454805597825854613e-01 -5.113916688992833359e-01 4.423726754967833297e-01 3.832996658538056489e-01 4.787006715298114390e-01 -5.610867046857322959e-01 1.636184085241454145e-01 1.429440874479677159e-01 -2.253170943099855605e-01 8.068222435131060244e-02 1.617774808718847601e-01 -4.915175206076499714e-01 -1.437340581635141445e-01 -7.612403181833135024e-01 1.030969963180995569e-01 -4.866309326186563089e-03 -3.211260620330026998e-03 -4.266869602815719920e-01 1.652363504254130422e-01 -2.257583671648195067e-01 4.673387080834649071e-02 -2.874014231273278042e-01 -4.218180860908869456e-01 -2.290626269331860199e-01 -2.584568453109147845e-01 -1.748906165763062792e-01 -1.726758161404183534e-01 -4.213591931494087284e-02 -6.512785693853472280e-01 6.132753118238395418e-01 -1.181659185207605961e-01 3.749268131829211481e-01 4.529052408893560200e-01 1.201686987290789960e-01 1.641203087835743368e-01 -3.545280881403213846e-01 -3.905848172246980110e-01 3.188544697801085626e-01 2.930389593878605092e-01 -2.240938006096098722e-01 -8.948424589038544985e-01 -5.205137058869992520e-04 2.607224181385938144e-01 1.112761550003385502e-01 -3.048515792942534941e-01 -3.136856330672403714e-02 5.709319805736745579e-01 2.844590813814734664e-02 7.933117900148559803e-03 3.281997929162936423e-01 -1.823227492293914564e-01 5.504725199186524115e-02 -3.659621637912603975e-01 -2.264955261364151040e-01 1.672698260353851774e-01 -3.497547773813711736e-01 2.819199902717278161e-01 6.624992712993672470e-03 6.000969046257705747e-02 -2.158089472615280779e-01 -1.894356630334817770e-01 -9.303411984557460879e-02 -3.098103372942673794e-01 -2.244398638882408592e-01 -2.139496293821548101e-02 -5.043244898720270486e-01 1.524729158360032255e-01 4.159072361931129835e-01 -1.569494757154702227e-02 -2.698217627187239898e-01 -2.090526154080158024e-03 -5.430025056564140584e-01 -2.226613067251360933e-01 -9.226058558033697898e-02 -3.778233297687563219e-01 -5.757136596213364710e-01 1.310421400364984446e-01 7.287556659286136274e-01 1.670441336919923081e-01 -3.866805034368589467e-01 1.076998648148672355e-01 -7.358211883601668835e-02 8.349388815677692699e-02 3.844994353998992254e-01 -1.889511683665826003e-01 2.653373770103265375e-02 -7.898371042994899172e-02 -7.822942517160134945e-02 -1.416871067885325242e-01 -5.754719499026502705e-01 -5.674961099478359472e-01 3.918292304535677534e-02 -3.430214121793108695e-01 1.502674923265469031e-01 -1.530268084101979731e-01 -8.414586828360476334e-02 -2.614327369359736308e-01 -2.390991257491540956e-01 -1.006177757611016327e-01 1.084233186870301596e-01 5.976146796408546846e-01 4.688201054460625072e-01 -2.494521477949735999e-01 3.311008204912010977e-01 6.416575121802382542e-01 8.808534341566847115e-01 -4.556402037480997702e-01 -6.224069381770768183e-01 -4.532469669759833786e-01 4.537565911149124553e-01 5.298987030501967066e-02 -1.227395188600267639e-01 -7.092605273768358698e-01 2.380528074170547015e-01 2.081166549459962101e-01 5.748921802723001850e-02 -2.401718399287643690e-01 -7.082272488898813667e-02 -2.170339643458847056e-01 -1.971879724502417497e-01 -4.002427292340355880e-01 -5.667380998079409558e-03 -4.335065116745597663e-02 -1.716867939027461043e-01 4.627587361085999662e-02 -4.409461700583390820e-01 -3.157627760664993288e-01 -5.301159490998236246e-01 -5.058996941918923740e-02 -3.025931127586878877e-01 -2.428007000679560101e-01 -5.088384950470582480e-01 1.212395308234790470e-01 -1.046416924267617315e-01 -1.137205422965171381e-01 -5.105645997903847100e-01 1.250599829581191536e-01 1.455213760514402210e-01 -4.223821909736765745e-01 1.501664693652856458e-02 -5.858537721240733021e-01 -2.455575052528563840e-01 1.628206356310075709e-01 3.572601351954575177e-01 -3.186238676304387063e-01 7.569232588335066403e-01 -6.815099241296407317e-01 1.373029960375291292e-01 1.961404941167966265e-01 5.805365677922618151e-01 -5.852715091823956772e-01 -4.123516034089755311e-01 2.466673754020817788e-02 6.637456247478207283e-01 -3.752893634262017275e-01 3.308011866773688525e-01 9.518668142175243374e-02 1.263538490782644130e-01 -4.622708302185332130e-01 -8.823314538304202759e-02 -6.270192146238501296e-01 3.826177751217957890e-01 -2.616515692917080749e-01 1.704674014476278698e-01 -3.605647057214022566e-01 8.284720053176323346e-03 -1.343766439984182270e-01 2.932914426505391359e-01 8.884869351767626933e-02 -2.746766730720354710e-01 3.588879736613742044e-01 1.115938137393566731e-01 5.426367188021630900e-02 1.412619749502546651e-01 -2.893912001692744429e-01 -2.572538838017159879e-01 2.892642613997570278e-02 -1.373847345656352414e-01 5.791802549311806381e-01 -1.715257003454654094e-01 -1.304137781148035913e-01 5.122252857406418558e-01 -8.532844251941215652e-02 -6.432591981684466775e-01 9.045370929798886295e-02 4.819464481151388147e-01 -2.068014534548417993e-01 1.708869963039361395e-01 -5.889792614066220455e-01 -6.200360347485821960e-02 -1.752590408786475762e-01 -6.520601173084625279e-02 3.276903210853896603e-02 -2.408219565715525035e-01 -8.538883214092340967e-02 -2.204484711644015549e-01 2.263112098309643175e-02 -2.545923796435082265e-01 6.908176561370384106e-02 2.206610827954464671e-01 -1.765463205826579840e-01 -4.063638846987503994e-01 2.070723741470477663e-01 3.016595346128509991e-01 -4.065217722365301878e-01 2.795967549697583876e-01 -3.974909996357101072e-01 3.490111799578619056e-01 3.384084075322164042e-01 -2.511846346327807900e-01 -2.029779191207984890e-01 -3.566950879797889939e-01 7.112433014453722890e-02 6.039431593749484684e-01 1.925899288638016904e-01 5.828264906171085752e-02 -1.263995658629807062e-01 -4.960616594213064778e-01 -3.805650487834468243e-01 -5.173195693358574321e-01 -3.796934936483846168e-01 -4.778859978111031359e-01 1.637718788302746642e-01 2.890898881200861803e-01 -4.531986818050590810e-02 -3.167403647272967193e-01 5.499463579757746592e-03 -8.042185791737082035e-01 -4.660505760752080007e-01 3.953578528897227495e-01 2.305232566206177891e-01 7.282724781545937831e-02 -1.552982656711797138e-01 -3.582625131365339000e-01 -1.264533550396715056e-01 -3.394614279473413820e-02 -3.376082153651476236e-01 3.803814404429538554e-01 -3.798514373848960735e-01 -2.663363873021817874e-01 1.931959397046169036e-01 8.053931900816303779e-02 -6.350607444161524562e-01 3.042056120719828782e-01 5.848884962192735237e-02 -9.826485529609860214e-02 -1.604331509579120796e-01 -2.467556848171310324e-01 2.696773683011101097e-01 -3.033783832917806289e-01 -2.148433409778534586e-01 -6.482927906401212415e-01 -1.541947187503431571e-01 1.545871315694949399e-01 2.503615809797369307e-01 -1.531028066011254178e-02
3.381515198061561533e-01 -8.083703247825491101e-02 3.630772412936418281e-01 4.225919547757932548e-01 3.174744662743168022e-01 -9.990741311592182816e-02 -6.354886862848100337e-01 -1.039408615187941698e-01 -5.242796713706688455e-03 -2.274318356563344301e-01 1.635915762988123245e-01 -5.015746134553825675e-01 -3.994946137835147376e-02 3.328603467112330461e-01 -2.313250038523581298e-01 2.219323227787151909e-01 -1.751776939840691827e-01 -9.214106551422257541e-02 4.679921349051678336e-01 -1.602708968533750056e-01 -2.394996455431060711e-01 -5.556304296264946707e-01 1.012859113753145079e-01 3.045381608817404606e-01 7.429908512624285866e-01 -1.839921163544970539e-01 -8.239755047018333667e-02 3.171316783517396654e-01 3.350659569619451883e-02 1.101094634254397853e-01 -1.275436782611414632e-01 -7.582500555251822094e-01 1.271321632279707459e-01 -1.704538139874724467e-01 8.661514074455597956e-02 -1.464469388045900981e-02 -3.930350270227483400e-01 -5.914833316203927938e-01 -7.233750618768131947e-03 1.312025711510833303e-01 -3.745246716322628844e-01 -1.250542230757147044e-01 2.075651469004460015e-01 2.332633388297108146e-01 5.103492044485543611e-01 -2.964052439598188204e-01 1.045794113779914269e-01 -1.288441201773837808e-01 -8.841260656616103941e-02 -1.346333027073816635e-01 -1.236245819485408265e-01 -7.107818990639540313e-02 9.703553336939589602e-02 3.260368323572174210e-01 -4.557186120004445007e-01 5.971226883951972347e-02 6.724106262014292179e-01 5.052816684998370222e-01 2.250076848772887828e-01 5.305680443470975893e-01 -3.721819895625518848e-01 1.458118283344635724e-01 1.187957278542883660e-01 -3.731991096903256588e-01 -1.818103076795721529e-01 1.547042380406707662e-01 -2.251551251612727081e-02 -2.001716009490384640e-01 1.981231515182002301e-01 1.817048287183580524e-01 -3.557623073806660541e-01 -1.711718896480754308e-03 -3.596679977090024294e-01 4.325344595783482682e-02 -3.221685621526836907e-01 -1.151011368411027358e-01 -4.674380465061038770e-01 -1.942866162244060169e-01 1.565510622836134846e-01 -5.757701119785803012e-01 9.428000249228069007e-02 -3.610225962039151359e-02 -3.408705464586010425e-01 -4.448049593486133046e-01 -1.674638362292694971e-01 4.005456679912854367e-01 -3.889576599319203298e-01 -5.087139919765985008e-01 2.322394356258059359e-02 4.569811590587156136e-01 -1.366804758377140050e-01 -5.736881760283018411e-02 -2.990169822020370960e-01 3.934782880578138187e-01 -2.184652064872848187e-01 -2.192955261506380760e-01 7.042619245329457822e-01 -5.335459488778325488e-02 1.905265600186443198e-01 1.024667898452789466e-01 8.639305994614705775e-02 3.366184221767028473e-01 2.254603823174716470e-01 2.524751451668919011e-01 -3.883289224155276886e-01 -7.788557201216607107e-01 -1.650064168827776803e-02 2.878887923767445844e-01 -1.449449015127542151e-01 -5.089053640556697733e-01 -7.022785290755746423e-01 3.052345488946797691e-01 -5.317015800003128678e-01 -3.667420700922295884e-01 -6.409855514069212612e-02 -1.280566904826691554e-01 -1.600429297707387233e-01 -3.082456105179836592e-01 -7.109993461942530624e-02 5.595437759750522544e-02 3.897792599390381696e-01 -2.904355291070856437e-01 -2.764243413329594556e-01 2.439647672253186794e-01 3.919522844914578585e-01 -2.509806183268187829e-01 1.140416791570968980e-01 -2.295954481603170449e-01 -3.262113323013246524e-01 -1.289699712450028679e-01 1.494131428335328804e-01 2.012694882651994699e-01 3.120099533043141360e-01 4.972516510863128070e-01 3.183465562375635827e-01 1.009260397683287291e-01 3.156368939080538005e-02 1.333093819968822480e-01 -1.898098002697777564e-01 -2.274694786335487995e-01 -3.218971885342623573e-01 2.038522565587814472e-01 -2.567616000590615122e-01 5.338514344478492157e-01 3.110943926377198188e-01 6.414188012499645597e-02 -2.675158715023314218e-02 -3.235364511064039439e-01 1.578872294541444066e-01 -4.600495427406146032e-01 4.387402999779771440e-01 -3.206472291157626553e-01 -5.586786509341151730e-01 -2.776632596408810105e-01 3.013660425287462696e-01 -4.912876559025742829e-01 4.729615099409901768e-01 -3.489709832633394737e-01 -1.548942532982532372e-01 8.897767218153941338e-01 3.063247097531794916e-01 -1.639767458524493959e-01 3.884859064506051007e-01 6.067718849132339859e-02 -4.967943528194802144e-02 -1.471757605193270702e-01 3.777428699470433693e-01 -2.283431068225446614e-01 3.567383372846342215e-01 -2.481851817708404795e-01 1.227240112274759209e-01 1.487770661474012712e-01 3.183408515777729209e-01 -4.572202044045971941e-02 3.065613111966369875e-01 -6.273117299853615825e-02 -1.979501860853761785e-01 -7.808752831362160418e-02 2.672738180444629852e-01 6.013225731312191735e-01 -1.259928301798576671e-02 -3.649856750156665885e-01 2.437409157165069118e-01 -4.257127672183061984e-01 1.284009535701160221e-01 -1.655567393788846126e-02 3.860496562797035014e-01 7.937928278874323285e-03 -1.085996039414418718e-01 -2.307527026425552352e-01 9.121362466358616528e-02 -3.018732398904883651e-01 -4.370426593742399723e-01 1.406320291279800627e-01 -2.079485057395843162e-01 3.313204746879570006e-01 3.467321151384431532e-01 -4.206999905992520050e-01 -1.445437543518852119e-01 -1.722435978358051178e-01 -3.153222532658600530e-02 1.699326700144423163e-01 -1.414189951306783488e-01 -5.172979588711065224e-01 6.301308354140121304e-02 4.405538621760801132e-01 -1.609635093818201357e-01 1.799418591303212078e-01 2.768703605304673743e-01 1.775011866909981251e-01 3.313355319075040328e-01 1.085952650107359918e-01 4.812635396814860522e-01 2.484201760634232314e-01 1.310468831782513055e-01 -3.274968048540837784e-01 -3.093160807048510597e-01 1.319843477930285058e-01 -3.093314863132609616e-02 1.275186365817227233e-02 -2.370755254918687632e-02 -1.740167038407951783e-01 2.543841416860310178e-01 -5.106782348243574798e-01 2.272284758949726369e-01 -4.496703409078093849e-01 -1.605150983558711053e-01 3.346730861923282174e-01 -5.390573060268977201e-02 1.875945948059027091e-01 -2.969641288005331337e-01 4.606412861157958560e-01 1.603609393587502874e-01 -3.471625777089469844e-01 -1.145414331603038377e-01 -3.268276539097726419e-01 -4.619008437744470468e-05 5.900045838506420282e-01 3.910469979592840484e-01 -4.430654408562959556e-01 2.537155147763932028e-01 -1.590261276931622392e-01 2.393848203320407819e-01 1.949726289233404408e-01 1.341130616256401009e-01 4.235152400050004595e-02 5.434518141056023932e-01 5.507754295628835006e-01 -1.942815704752613726e-01 -4.607404339367148216e-01 4.153911087675898339e-01 1.212330630011922844e-01 -7.062740304630077404e-01 2.239640003166163407e-01 2.660372770692625566e-01 3.078466718475814656e-01 -2.990021410017161818e-01 -1.151578694853461551e-02 -3.668124530797606253e-01 3.850535293203187215e-01 -2.168120121913117981e-01 2.725047352598224948e-01 -6.878620443570862553e-02 -2.868577467853377083e-01 4.544017566638000050e-01 -1.914860946239004824e-01 -1.242895241261397637e-01 -7.763092691349496866e-01 -2.980186426180950754e-01 -1.119729996794984334e-01 -6.162214596773230718e-02 3.243607308649548160e-01 -8.823298191373599164e-02 -3.215625437215502980e-01 -3.388098750546574833e-01 -2.956036322790502879e-01 -1.350187008789766330e-01 -3.117936132706123908e-01 2.900881978140196771e-01 -2.253862443173092756e-01 -1.272754583469743461e-01 -1.283099426038501190e-01 -6.636696852532700253e-02 4.404843836058245921e-01 -4.280940831102120758e-01 -5.688248320339896885e-02 -3.400588587822709896e-01 -1.688691185650173232e-01 -1.268831503581954456e-01 -3.260726539545564379e-02 3.552827198129006603e-01 2.360570944397595294e-01 -3.544565763952693960e-01 8.902305871980725760e-02 -8.011052399588791673e-02 7.037877969909334119e-02 2.157003209976119940e-01 6.743786749312419282e-01 -1.117224763827408957e-02 1.539605003344109713e-01 -1.370834816590640881e-01
-5.232237342950325498e-01 2.890785709952802818e-01 -3.480824600867457042e-01 8.676515798997498363e-01 2.148108770926122624e-01 1.258314065576145446e-01 4.864192168903266195e-02 -2.609805238652612713e-01 -2.348800482068602591e-01 -1.068759058559066444e-01 3.181838479054982516e-01 -1.091700917620519601e-01 1.346724483600408081e-03 9.981744790409025070e-02 -4.767648913509314190e-01 -1.403971499401981127e-01 4.878087869993114056e-01 -3.555588203660263735e-01 -7.688063577881628641e-01 5.564607313323482324e-02 -6.001817019060367020e-01 -9.211695907557003737e-01 -2.428007693691041358e-01 -3.161992642812972432e-01 -3.128122105149496179e-01 1.338156145176241374e-01 5.807001405023782814e-01 -3.399331433585226631e-02 -6.575921660332373353e-02 1.782333544583766111e-02 9.821347515800891992e-02 1.405109475831673449e-01 -3.592932719246940548e-02 -3.340337857555031407e-03 -3.170246582992995998e-01 3.905791589517038642e-01 2.133786209769865383e-01 -9.790114529030878587e-02 -2.747954894425127526e-01 -5.607039479295938822e-01 6.880737300632429054e-01 -5.779862707648489861e-01 -8.738209594966871163e-02 -1.414448717223426057e-02 2.352830879060079927e-01 4.052521516374703037e-01 -3.286203088363630620e-01 2.216191166276251234e-01 -4.496346524304579706e-01 -9.339216578913629718e-02 5.473014011671610834e-01 -1.703967212256238218e-03 6.059814135672021013e-02 -2.855744488962106975e-01 -8.255001270290358850e-02 -4.318675594917582017e-01 -1.936791759327475548e-01 -5.786854820320681547e-01 -2.361632447059814482e-02 5.355837444872023623e-01 -2.723161334629534691e-01 2.861478320024424260e-02 3.933976082680067377e-01 -8.567447006769905726e-02 -2.706099738415741474e-01 -6.826392456209182669e-01 7.716151241210546241e-02 6.113610869590117014e-01 3.405950176831891718e-01 -7.484900102636928843e-01 -2.943479756169812833e-01 1.139965087854177272e-01 9.988996452824030481e-01 4.226129699600717493e-01 -2.192688359658962194e-01 2.224518363550598565e-01 -2.549546916220249773e-02 -5.284515257053186144e-01 -4.615816626992281374e-02 2.536329682233500749e-01 1.290241828719641271e-01 -3.638816877169063768e-01 5.617303542980272013e-01 7.799026828983545157e-01 2.213187889898967642e-01 -2.924256099668983144e-01 -7.123646793647780973e-02 -7.030294068505599236e-01 -5.987465497320484387e-01 -2.416471591695177612e-01 -4.846998479700160845e-01 -3.056180685798723928e-01 -1.376958922565421906e-01 -1.897282984150523710e-02 1.829704312850148618e-01 1.976949961511100529e-01 -1.020222892254700309e+00 -5.376896895141147770e-01 4.025088251263274630e-01 -2.177291455654068453e-01 -4.653186473132234213e-01 -2.021712289745256907e-01 -3.382440189989380785e-01 -1.710728383189410728e-01 3.058649468033929342e-01 7.282558511390109686e-03 -1.944081488683069570e-01 -6.243862041722106904e-01 7.570732851042593081e-01 -2.264203964957071588e-02 -4.004763614143097561e-01 2.865646379028447543e-01 -7.014125296322186731e-01 8.490619655611290062e-01 -2.134213192172765006e-01 -1.341845557155652013e-01 -1.087663174383023817e-01 -5.264588476637770409e-01 -1.806130526127613656e-01 2.931876821156534363e-01 -7.973425931870176120e-01 4.722104493809375914e-01 5.043979181475984896e-01 4.390597388163159157e-03 -3.334712648610314578e-01 -2.531639541873559884e-01 6.326538273019961522e-01 5.430749362977017602e-01 2.778826328704214754e-01 -7.713478536842156563e-01 -3.667638227947525031e-01 2.060749066818755026e-01 -1.962044518155378614e-02 -8.873194188924058423e-01 -1.161069945397656678e-01 -2.085813366625144105e-01 2.035470270583305055e-02 -2.932914253360496826e-01 2.009566358760410398e-01 -1.913402424635727017e-01 -6.098377810551717237e-01 2.123957704540342661e-01 -6.467326902039038927e-01 -1.462108508252668859e-01 1.403797287129274207e-01 6.056526648619516839e-01 -2.170430538624409100e-01 -1.690003156074223467e-01 -1.130584204529206244e-01 6.698801474758786512e-01 1.060338664820101168e-01 -1.143188613145075874e-02 5.757972126422666870e-01 2.545783865543543301e-01 -4.804922266973807865e-01 -2.356991485265295672e-01 -1.415089420518180208e-01 -1.297170512483302174e-01 -2.753400503159546542e-01 -2.489803640083058378e-01 -6.463824551408005152e-03 -8.364071001547136452e-01 -3.407290060401034493e-02 1.081071905974809289e+00 4.978236217336630687e-01 -4.279391017584616153e-01 -6.214919563807452807e-01 -8.326889386610740740e-01 2.997727240013581262e-01 -7.550076139752112669e-02 -9.858457822364903589e-02 -8.707194661827956095e-01 -2.385231077849506998e-01 4.586388128330972855e-03 -5.705675104702835343e-01 -3.694684346742229120e-01 -4.293825412969290434e-02 9.400219269741989792e-02 -5.814549412156263392e-02 -4.157427527295609049e-01 -6.058708717348353090e-02 3.317679538638803605e-01 3.324963190331228780e-02 -8.965061144197596921e-01 -6.642208406744469495e-02 -5.227474141752103121e-01 9.837219743664489535e-02 -1.876846831495761481e-01 1.052003286117341396e+00 1.978873725863371930e-02 3.676883502498896200e-02 1.060355983813326963e-01 6.325199118255974140e-01 1.552245608515715608e-02 -2.374937323627209773e-01 2.972828833913444546e-01 -2.755959038711877085e-01 4.017782700380250448e-03 -3.682994478078431833e-01 3.386209796342852796e-01 -1.484672825140697372e-01 1.636546499400212684e-01 6.707772037337265958e-02 2.727995376563174257e-01 1.799024892175784818e-01 7.584078009089852135e-02 3.022837135912846973e-01 5.087841840404594418e-01 3.437024747491592702e-01 -4.816148779508294120e-01 2.128331638354418465e-01 -6.606350846588018300e-01 3.515070574111941459e-01 3.137611281242234651e-01 -1.881279403589934951e-01 4.001000754922633407e-01 4.721578464653097829e-02 -1.045072051915914291e-01 7.599587078619056690e-01 -1.075890090410854261e-01 -4.661859588583953246e-03 -1.103332564005373495e+00 -2.648827785843022031e-01 5.934414635452228692e-02 -8.044962433781116529e-02 -7.758343955823206184e-02 -8.691972731052433065e-02 -1.084478490698873865e-01 -2.166884974260862781e-02 1.014494862493646871e-01 -1.575970805084591919e-01 6.042299428540486295e-01 9.365448640360142518e-02 9.557538597788222123e-01 4.844899410265303130e-01 -4.256495276931248073e-01 -1.317237937535633285e-01 5.289976594625881434e-01 7.756243877907563478e-02 1.484485492379666316e-01 -4.668393978625060559e-01 -2.187899961516061309e-01 2.136023103538984003e-01 1.635311803657641117e-01 4.264150025796790977e-02 4.942082297567660515e-02 1.926352944832149805e-01 1.027047953425089394e-01 6.779963209274676439e-01 -2.104824361178528336e-01 -1.806884641074464060e-01 2.109019716933664690e-01 4.811658719488864228e-02 9.579828144064798934e-02 -1.978872086841051980e-01 2.020029429813562094e-01 1.923494175876114820e-01 1.839499628179959434e-01 -1.995017402009842122e-01 -1.071484016570924958e-01 2.021756476486179233e-01 -3.779430479928679865e-01 -7.641638550568746746e-01 1.001677920860290394e+00 -1.858474609574959913e-01 -8.967586393328945416e-02 2.609658627230210248e-01 8.186628020985413368e-02 -9.082157717815000919e-02 8.647249401572803737e-03 -1.753786229554572529e-01 2.260728686282085231e-01 -1.011455282390383958e+00 9.787634023764237856e-01 -3.238741544606807410e-01 -4.849386735560860529e-01 5.475331164161987424e-02 -5.247627306654314427e-01 7.022543566140385107e-02 7.462713633464697523e-03 -3.028816219363558160e-01 6.069000679240880297e-02 -5.693911750455826759e-01 -1.043554540135138042e+00 -1.610747720292526608e-01 1.756027435263070591e-01 -5.070501029727826348e-01 2.659165142657638481e-01 -6.704759691870487703e-02 3.914906420982838253e-01 4.552879745085923746e-01 -2.709653112394062036e-01 1.175791234614529834e+00 -3.701113712001637412e-01 1.854412683407251627e-01 -1.055515066161013815e-01 9.302369600486894152e-02 -9.553633261800720256e-02 -4.990735892704856180e-01 8.428626636263610861e-01 -5.077970741086166445e-02
1.020058080679037277e-01 -1.178914799687854204e-01 2.356747398377466995e-01 -6.289516085031574555e-01 -1.088047234216468484e-01 3.074338712244825134e-01 -7.154749476511998996e-01 9.564256792709383004e-02 3.775597982309732425e-01 -4.606655590978009918e-01 -3.194746195071811457e-01 3.597742881575966556e-01 1.418640585831178191e-01 2.060879709289111655e-02 -2.516660439303967656e-01 5.982166727065049150e-01 -1.448514829870008458e-01 9.079745617316620221e-02 7.058812824037444256e-02 -4.663398680528752505e-01 -3.142545521433310896e-01 -3.247258707068371303e-02 3.002668722694791167e-02 -2.825381042391464370e-01 -2.934217310614626872e-01 2.111943613762760075e-01 6.730369266328464217e-01 -2.168519876762311227e-01 -1.159102785386160461e-01 3.869153831789655384e-02 -5.300162602048465871e-02 -9.122277003329697376e-01 -6.006504127375583701e-02 -2.465932653831847399e-01 -7.257491184467120826e-01 -6.184032487476772699e-01 -8.678853880821636446e-01 6.497186555180091139e-01 2.227206207128683557e-01 -2.978827063540219131e-02 2.324734317167522768e-01 -9.095664733551386272e-01 8.278539589096121920e-02 -6.728789150730621338e-02 9.074320495303400680e-02 1.565908438398423697e-01 2.668456467397494203e-01 -8.698963467312478826e-02 -2.567005271786368947e-01 -3.087940380949488750e-01 1.492074169567112751e-01 -1.336086810772187800e-02 6.880216791367802509e-01 -1.511505323466818818e-01 1.131184261088195170e-01 -5.789583216959920398e-01 -1.839298481479701708e-01 -9.718923635509456593e-01 3.899390426976970803e-01 4.128748253312454763e-01 3.523481124031450223e-02 3.450457825367253539e-01 2.457702221278882347e-03 -2.497874757574965743e-01 3.816883112421647906e-01 2.493463891081298400e-01 1.197611222590576341e-01 4.346260935062427611e-01 -4.085837095660476148e-01 -1.883515761176807191e-01 -2.459342660122693369e-01 -4.122089306145059195e-01 -8.678260867897584774e-01 1.820358689239990613e-01 -5.258776165088043797e-01 5.661715417950560214e-01 4.598794656964919764e-02 3.605305245526003732e-01 -2.157898066088566047e-01 -1.365651497552167193e-01 1.861360467813537867e-01 -1.846788202242690413e-01 -7.694604787628583908e-02 1.180832768808003586e+00 -1.103340144334038347e-01 7.067009089208792227e-02 2.681460570794770293e-01 -4.339876838205072307e-01 -2.666922091552217378e-01 -7.658860629329868885e-01 1.942917665826101314e-01 4.669077797998703871e-02 2.033152984570202049e-01 4.207985543181044230e-01 -3.029209541808663420e-01 7.535989631094365017e-03 -4.318252047225128454e-01 3.035926890934899647e-01 -6.803066595530838923e-01 -2.009596987596636714e-02 1.285707757447984434e-01 -4.292120654820359427e-01 1.523288111065000325e-02 1.917623938620694191e-01 -2.343520830868502658e-01 4.262522705564773529e-01 -3.590771065462769474e-01 1.533829029559742596e-01 -4.304079315863047484e-01 -5.847391877073597477e-02 1.002718216207860058e+00 1.349017393878512439e-01 -9.862879685627917725e-01 -1.382940626802169337e-01 1.652744100979796349e-01 -9.799428839348388320e-02 2.016358911926549313e-01 -2.419616550441973987e-03 -2.715430491328912899e-01 -7.484123806498028664e-01 2.305205062910084535e-01 -7.051374485863516339e-01 -5.494781651233514586e-01 2.096088964911026371e-03 2.814644928359494314e-01 4.286058423621603719e-01 1.380822071277889307e-01 -4.697925468251613612e-01 -5.750482783647175022e-01 8.489383064577462612e-01 -4.850159003916308664e-02 -1.515861691761316750e-02 -7.631627464838686148e-02 5.974011892199351248e-01 -3.166009269345769761e-01 -1.288025080757791985e-01 -2.818288337187849213e-01 1.513007919711842342e-01 -2.344748261030808467e-01 1.181833669401763043e+00 -1.825132055000107112e-01 -3.149818631638576782e-01 3.744907524554310640e-01 -1.547849959128704544e-01 2.324470613583400624e-01 3.521989596923870702e-01 -7.084986627084498556e-01 -1.024363291153784078e-01 -1.466190783117813645e-01 1.139757216462978784e+00 -2.160805714652326570e-01 7.028887529055564964e-02 -4.253105021399485042e-02 -3.731952886771385258e-01 5.235601243655093606e-01 -2.834275675411727646e-01 2.869673030945050218e-01 6.148728054779158958e-01 -3.413829956264957111e-01 -2.055468288235999252e-01 4.241894351563370025e-01 7.238726364759215381e-02 -2.377150896589005080e-01 4.849040798099099603e-01 -2.984213225214724652e-01 -7.604704925266500548e-02 2.043322086182602360e-01 -7.986604285272864701e-01 -2.914947395050804246e-01 2.941197276255305693e-01 4.263799084084968216e-01 6.535959567577755980e-01 8.777281472363360204e-02 2.030368187036885597e-01 1.893007768254127976e-01 1.090127873970270916e-01 -4.725541798970055996e-01 1.646988863013844895e-01 -4.582581141463677454e-01 -4.960226176845015655e-01 -3.758167421512157991e-01 3.929316516606164503e-03 -2.117996910291261581e-01 1.401303263523028253e-01 5.104886708307013743e-01 1.112644829852615480e+00 -7.701352628640376584e-03 2.713729077729441497e-01 -9.702342025918542223e-02 3.717248913523028830e-02 -7.362514247860317551e-02 -3.448492620234226980e-01 -3.507807877351309389e-01 -3.894947248387493205e-02 -2.882693542637317363e-01 -5.424643591930183861e-01 2.895296660772262443e-01 3.650788369851541426e-01 -2.425280694346331478e-01 -6.450974796117587839e-01 -1.030545430390749154e-02 -3.693941122906132524e-01 -1.074870265478099635e-01 -6.813253521445717942e-01 -2.826125294259141940e-01 -5.051398080086658693e-01 2.903469710929975078e-01 4.862511349297870059e-03 8.015856027764792779e-01 -2.830973255926171328e-01 -1.438900355586055224e-01 -6.890456370447366197e-02 2.052844070472111260e-01 -4.379436970566734089e-01 1.988487483094282249e-01 -4.255625502994079268e-01 7.719721286711078712e-02 1.996297613572845797e-01 -4.752074917690347067e-01 8.801536378670435368e-02 1.559349294847994088e-02 -3.215844223994315798e-01 2.069353524736207151e-01 -4.472874814987519154e-01 2.987690433192267125e-01 1.040650666107470895e-01 -2.592821904198915339e-01 -4.478416596589372967e-01 -2.021299511906149426e-01 -9.980187641105870977e-01 -6.218646350668520784e-01 -2.053896121785719064e-01 2.408413625443222850e-01 3.815333164405347866e-01 -6.612335589698074001e-01 -2.493144026854669515e-01 -9.837833496544137746e-02 -4.408671002331029931e-02 3.872845205822983417e-01 5.738089331645045421e-01 -2.378298521956658251e-01 -3.341410230737760223e-01 4.703220878370962393e-02 1.079609521693415258e-01 -1.178113625032365663e-01 3.112493948971951918e-02 -6.207643810856373623e-01 -1.554606359359223533e-01 3.533011968917776358e-02 -3.927804564924408659e-01 4.640741288788685637e-01 -6.150859336257464838e-01 -1.160661183245286637e-01 -2.159726559100663967e-01 2.027893988691346905e-02 -2.567271476118863083e-01 -2.014521410286984893e-01 -3.168644356499170783e-02 -3.706835456079870528e-01 -5.726500907487133002e-03 -3.502699676262793771e-01 -5.329094859960155084e-01 -5.996776949419719838e-01 2.316129248826216958e-01 3.843613550955271019e-01 4.776148531199570502e-01 5.191304820766855510e-01 5.275705391328866511e-01 -1.093959178182521939e-02 9.016207862186491340e-02 1.087326502637239622e+00 -3.973713352346690542e-01 5.404640134499751059e-02 1.271060698201152972e-01 -8.527642283547151592e-02 6.941876578558132671e-01 -4.325652223005633235e-01 3.449609156594824477e-01 -6.114378352500599023e-01 -8.565679960004480842e-01 -1.469225870604980999e-01 2.287495806574527946e-01 -4.278195930026198468e-01 -1.382965522770809752e+00 -1.849172502134922846e-02 -3.892228654163071289e-02 -1.413819357209792904e-01 -6.537707093845179784e-01 5.119405030930409412e-02 -7.173910382686788934e-01 6.639318379523370117e-01 -1.565910810591004121e-01 -7.800960273759588448e-01 -2.791565150948063234e-01 -4.215739396448699161e-02 4.066911640473781508e-01 2.386670148349420151e-01 -3.311310171583104617e-02 -4.776405505638868787e-01 1.256758460146873042e-02 -7.537708549861730535e-03
-5.597961733201082257e-01 8.552558663406749362e-02 1.429352054797607408e-01 -3.185243896769495153e-01 4.814057176830956464e-01 -3.428356556191717308e-01 5.824696946033229572e-02 -1.361443397657674526e-01 -1.843854838036385890e-01 5.343612298914490744e-01 1.441998907857736933e-01 -1.737999390998053173e-01 -7.478286728296194008e-01 1.883514893728018696e-02 2.479289927924680226e-01 -6.412240668211649508e-01 4.611670086204721075e-01 -7.016549613646340736e-03 7.739695598528082421e-01 5.493139512671618707e-01 7.630561940535171006e-01 7.962823169568522541e-01 -1.748378596952904207e-01 -5.848860149247149254e-01 -1.986796930259180916e-01 5.041913930648085629e-02 -2.758855419796717445e-01 1.294409774903412524e-01 -8.483020498429080791e-02 1.070032406141977338e-01 2.663354686934112925e-01 -8.415077379504417587e-01 6.489275136443887204e-01 -2.539522493236310852e-01 -1.218893770288868037e-03 7.730269823230556669e-01 3.645902675744294719e-02 -8.420536107467355494e-03 -1.075280959189284097e-01 1.789630715662157701e-02 4.500771569963266661e-01 -2.313593076239899571e-01 -1.013228157933532825e-01 -5.738846661286487461e-01 8.154616200115727409e-02 7.374702445035102860e-02 -2.524758070576152980e-01 -7.893124910468769517e-01 4.484953427182963304e-01 -5.998435289756376410e-01 -8.076601201218202783e-03 -2.014198141475324055e-01 4.428477242695268851e-02 6.355395037658509994e-01 -4.373148110091564233e-01 4.719064211526069474e-01 -1.203787674583412182e+00 3.420973185985782816e-01 -2.438977831627069937e-01 2.501819201156948308e-02 -5.294784074774879779e-01 -4.212161613442831909e-01 -9.038535836128518408e-01 4.226954250536419377e-01 1.450154587644204018e-01 -3.571998789062735269e-01 -4.680823522893264033e-02 -2.937244626517592772e-01 -4.080864238279388601e-01 1.700087615805583596e-01 -1.528924668978500490e-01 3.790665712216373939e-01 2.377392492878573349e-01 -1.013194141267192427e-01 -4.904149826152744973e-01 1.987683380401136790e-01 -2.180111780415782199e-02 -7.397808831174792488e-01 2.178382084524325621e-02 -1.967452533893797872e-01 3.178418997176705729e-01 -2.599446529460403554e-01 -2.002450018268158716e-01 -3.439692136513494702e-01 8.439313618337830614e-02 -2.762510870732257096e-01 4.615910447613460338e-02 -3.707159485752409278e-02 1.765700307428337279e-01 -6.438361935310513706e-01 -4.237616127679409428e-01 -3.941224817178349271e-01 2.197500022161471833e-01 2.679717603637545853e-01 -2.528799281391452825e-01 -5.000984093854857898e-02 -4.752664946865601259e-01 1.590003985348795446e-01 -7.576146080156241913e-01 -5.609900492741187045e-02 -1.409752414706635926e-01 2.493653085002676129e-01 2.302345022080479753e-01 4.348046260256857032e-01 -5.242845748736908451e-01 1.431661773664540949e-01 -3.591009907514487454e-01 -3.845014956392097671e-01 -2.187969226263882794e-01 4.375371809715902782e-01 6.502173434452901413e-02 8.042958999395787290e-01 1.055506440191007200e-01 -1.693712460564165412e-01 -1.289391442323567227e-01 -1.969630901549520863e-01 3.014176803366661050e-01 1.360768207339855818e-01 -9.149939163650084861e-01 -4.862726658022029080e-02 -1.321090096534686120e-01 -4.940551176624141116e-01 3.280679163839717027e-02 1.849983127759239621e-01 -3.764533367602859171e-01 5.170468261001417293e-02 1.843839129382912057e-01 2.531664237271558093e-01 -4.713116994522767444e-02 1.386346138518638749e-01 -3.062928621622283964e-01 1.169657994903173792e-01 5.530481651382973540e-01 -4.084011528784142753e-01 3.649472385544441089e-01 -2.727262667655332984e-01 9.201030700520002048e-01 -2.245076235535124198e-01 6.819713303866424825e-01 -3.580419554928333525e-01 -1.378363902959862941e-01 2.738160922479162540e-01 2.025964430331706201e-01 4.262149929493759815e-01 -1.100596520315238330e-01 -5.995568420406824917e-01 9.816679170296847834e-02 -2.766265283807213260e-01 5.920232565765239929e-01 -1.384938796490670365e-01 -6.876503681242717159e-01 -9.245711508746096152e-02 4.203582871954860689e-01 -1.242130458096197126e-01 -4.022513912503848932e-01 1.198681983197106005e-01 1.767625673963412747e-01 -1.331726702538515994e-01 3.660413407904889449e-01 4.826318270588554615e-02 -9.920799283606267227e-02 5.538788803688211165e-02 1.594846633185714180e-01 2.728279673370380687e-01 8.236505451822787038e-02 6.640152557411496681e-02 -1.517985555225789818e-01 3.113086773097067383e-01 4.973198675161639160e-01 3.011835279393953457e-01 -2.291172873012919109e-01 -1.486518232231908987e-01 -3.273503257942372291e-01 3.463871639719923734e-01 -3.783151033973740085e-01 -4.101231467083285009e-01 -2.623332498054091189e-01 -1.510146788908439675e-01 4.452395846961813564e-01 2.713577661845593680e-01 5.780837135503590768e-02 -5.116855365534841438e-01 1.039569800773435526e-01 3.196907368009559436e-01 1.255603203067753859e-01 2.687497569706679412e-01 -3.311493303172192704e-01 1.088426490873667107e-01 -3.605387316623170357e-01 5.609451630651998144e-01 -2.532290681291911594e-01 -5.945072714649697332e-01 2.104889299364678945e-01 1.759422454825241844e-01 -2.742386756434348188e-03 -1.049563276242142074e+00 1.140784146600518772e-01 7.221978383295570014e-02 -4.683722307528008222e-01 9.893770913592282723e-02 -3.230831428021354035e-01 -1.318467981900133534e-01 -1.506794526277062674e-01 2.685212071925894284e-01 -4.471266304464683872e-01 -3.957216798453080941e-01 6.654423419737388601e-01 3.401314251938244992e-01 -7.568198000999557529e-01 1.989405196031610382e-02 -3.502149503523330765e-01 -1.602322182105725412e-01 -5.063151725851995355e-01 3.167783876684532318e-01 7.613417218413571774e-01 -6.026319567382902864e-01 -5.644624671089452095e-01 2.408723122495546043e-01 -1.457556362009876545e-02 1.901271245933493503e-01 9.852778793093999732e-03 -5.220672757573590061e-01 3.955113246342694677e-01 4.797932204990953964e-01 -3.524250282865131201e-01 -5.228020569154834263e-01 -3.805385224622817586e-01 -2.125134460510652301e-01 1.202893594155980822e-01 6.056036944503249142e-01 -3.141938501598540157e-01 -5.542412059068236446e-03 -1.787964796455719652e-02 -4.684761986516304821e-01 -3.772129417845481725e-01 -2.746681767765476664e-02 1.843736154496494750e-01 -4.440041720445983553e-02 -1.127198151838402079e-01 1.441933187737567124e-01 -6.605714342775701464e-01 -3.168693539302913642e-02 -1.817178554001377955e-02 2.383615351135731641e-01 9.809792035475230210e-02 -1.722840992733550292e-01 -5.853978691866863759e-02 -3.306832713161618198e-01 -7.075985219062786991e-01 -1.604888480912675108e-01 4.286885882606741166e-02 3.092584742442197610e-01 1.769679294389639723e-01 1.220447329089056898e-01 -1.515149169805106721e-01 -1.110442586730054151e-02 -4.007699184224128852e-01 1.295322668240125596e-01 -2.636359205556538243e-01 7.230452362801558230e-01 -7.133502850117130756e-02 1.341714156030870964e-01 5.547689464436257323e-01 -3.285840370756210604e-01 3.927980503459400641e-01 -2.482589437175001801e-01 -3.328457921480003634e-01 -9.455377112124918604e-01 -6.017335779391087547e-01 2.121844066046416344e-01 -4.109192156860249634e-01 4.377426923938742588e-03 -2.142378526672475969e-01 -3.946325593048270741e-02 -4.736987673436249269e-01 -1.973970548314077922e-01 -4.499664730504138177e-01 -1.960143063895567195e-01 3.088179522615752126e-01 5.694614625843074096e-01 -3.628233550147113573e-01 -2.320250593642647907e-01 2.034091645573634366e-01 4.353496451577659188e-01 1.760170139029955949e-01 1.268387150756046799e-01 -3.366320654786192912e-01 5.376609776551883879e-01 -1.616024597397520413e-01 2.851814431115077264e-01 -1.050869499115888006e+00 -6.028059357506281024e-02 3.547990936032259235e-01 -4.201330556713332998e-01 1.877384479018315289e-01 -2.289410086684869339e-01 1.370451827582637450e-02 3.467271981419007276e-01 -3.563821659854661261e-01 4.101325922498003651e-01 -4.580896051058804680e-02
1.315084941009823094e-01 -1.665887051987591794e-01 6.995448372726748368e-03 -1.620435171270925012e-01 -1.633958590022970558e-01 6.761072651389312682e-01 -4.005412832538764178e-02 -8.546669349519751824e-02 1.237244292637546955e-01 4.100461512003423376e-02 2.126230233213629306e-01 -1.281693641314085863e-01 3.053173352201129717e-02 -8.681216277759179478e-01 -5.177065725579214073e-01 1.132993040471232282e+00 5.075026326622570361e-01 -2.408004951186447362e-01 -2.129821861497309121e-01 -6.766205736629495038e-02 -2.842727033997373143e-01 4.664873438451613841e-01 -8.297422579870923354e-01 1.047856972783003382e+00 3.868342667066930474e-02 3.159711270834846819e-01 -7.660251883583498733e-01 1.908698587334681507e-01 4.093912918089731567e-01 -1.497936751415763212e-01 -1.955916305125840748e-01 7.007988131714013580e-01 -3.485259652619859816e-01 -1.518113300966487111e-01 -9.976453726174157044e-01 1.651741254401144915e-02 -8.982870944084840881e-01 5.728246463235104891e-01 -9.476948759774209141e-02 -4.093839015358945455e-01 2.173005484141050381e-01 1.328055474079846698e-01 -8.928985607197964525e-02 3.026258567043862424e-01 1.675136203957492131e-01 -2.552083999088433086e-01 -3.412939504174364314e-02 -1.125351484664800783e-01 1.990862411053161696e-01 -2.072601977707380638e-01 -8.694805460335540415e-02 -1.975619492617307904e-01 3.440830519761446937e-01 3.552028276987458377e-01 -2.209116753080993256e-01 1.460081576643424972e-01 -1.720835303222902415e-02 2.844746058530298605e-01 2.336868136631314319e-01 -1.252994652666086672e+00 5.732777668270397364e-02 -3.762385634895774045e-01 -6.272176123476395915e-02 -2.899792857381751077e-01 -2.371609455471433980e-01 -4.980272952965225097e-01 1.007975286319321984e-01 -1.971489513711274510e-01 -4.163062644977486015e-01 -1.945865660375144801e-01 1.243144601203071548e-01 -1.277453148337296535e-02 1.337755708987505288e-01 5.917742649214198236e-01 -2.616268823472942540e-01 -2.284371126977381705e-02 -9.012980889565931630e-02 -1.326095957663545877e-01 -1.320162343102516123e-01 -7.644521566783277766e-01 -5.099828109191308773e-02 -3.630374861856543456e-01 7.506329172703379848e-02 -2.477363595417625686e-01 3.947072355857736969e-01 8.583279136565904466e-01 3.365509574004838522e-01 -2.178396161402258030e-02 -5.673555374542140761e-01 -5.056047078797524241e-01 -3.490888060697716622e-01 -6.843973044088847990e-01 8.060672376103550363e-02 -6.605282205614226854e-02 7.220182637509422463e-01 8.929602844041989104e-03 9.413006252075640790e-01 1.606065023634119238e-01 3.689118597544956968e-01 3.135146758196163952e-01 5.327474802192547765e-01 -6.735034619938282674e-01 -1.983708534619480213e-01 6.527763771916575419e-02 4.946774576229195919e-01 2.759384296757734223e-01 4.598255371057402563e-01 -6.449937610050282544e-01 3.906267291151313548e-01 1.253261855418421333e-01 -1.463171810935378903e-01 -5.662039593546492888e-01 6.489405872621428761e-01 -2.324410090910176974e-01 -4.338450830338787534e-01 -7.517889906121069110e-01 -3.641214235501135099e-01 5.264008702466006495e-01 -2.990876803249775673e-01 3.344827854222893193e-01 -8.778680392385517228e-01 -2.026548943179671824e-01 -4.806034117168687669e-01 3.079361133772894332e-01 1.625125328203355091e-01 -5.615383532760538365e-01 1.841812021150035505e-01 -5.035426651062971937e-01 -1.244081075978728190e+00 3.531523066170197955e-01 -8.501238452089237077e-03 3.642946280241468604e-01 -7.813144995051306274e-02 -3.760375827367256618e-01 3.472726836755657409e-01 1.812224715941808673e-01 5.175728971653578148e-01 2.346970558726620137e-01 -6.031070236421849640e-02 8.710775475678961266e-01 -6.825958851297289076e-01 -4.303228872143476449e-03 -3.926355280656459446e-01 1.885911322312754448e-02 4.124397644203818825e-01 1.377824372836680966e-01 3.897324225364151573e-01 1.167305874890683381e-01 -4.485387387525546776e-01 -8.323610578178688435e-01 -1.069378729110246784e+00 -4.569908174089488267e-02 1.862442470722607823e-01 1.829418662472660495e-01 -5.775095074407239348e-01 -3.278055582807445356e-01 -8.695194319213184198e-02 3.444279808992539160e-01 4.672676033029807829e-01 1.845972658480554474e+00 -1.542253387891393858e-02 -9.532196311778515230e-02 2.791915134958400380e-01 -1.009852577954073016e+00 8.132203511436018883e-02 -1.191365503237328538e-01 -3.895815621680139285e-01 2.912834331732712112e-01 -2.271696678045437290e-01 -2.563802948565131468e-01 7.408987864110703203e-01 6.956524288421572777e-01 1.754801599175441207e-01 2.194998284946343969e-01 6.795363458069675344e-02 1.642409319912135901e-01 -3.130037747733752651e-01 6.556779269656417553e-01 2.054383329354751361e-02 2.887920478080182596e-01 5.650374801821453907e-01 3.504948615030620274e-01 -9.898847914438645146e-02 3.823423995616104243e-01 1.782597384597134349e-01 3.723766761534454406e-01 3.609363401195477827e-01 -1.260707295753817903e-01 -9.207284773448583259e-02 3.715398764142096022e-01 -3.447844989267581095e-01 1.101408152039245580e+00 -3.578126576935069525e-01 -4.459857977057639887e-03 3.788506660544223997e-02 1.746524011556830069e-01 -1.879744013743465114e+00 -8.652930025108790391e-01 -6.952357063832301787e-01 7.650609038424461827e-01 -2.688144392009728656e-01 7.409688385886259443e-01 -3.173379055440552765e-01 3.322352862509125870e-01 -9.307225673686707612e-01 3.302907463179010628e-01 -1.395650332801197102e-01 -1.913465651690237357e-01 6.977204804060763710e-01 1.199643544831116571e-01 1.352868894213374584e-01 -9.236713502557161171e-01 -4.170638687187935845e-01 -4.560273357084257406e-02 7.069129910828865215e-01 3.364008538228963618e-01 7.593967673288979370e-01 -8.778265221719168121e-01 6.109623169021215494e-01 -2.021940050483608114e-02 3.617999713060823797e-01 -5.785543450058663884e-02 -1.005163351005945171e-01 1.537118409999533586e-01 2.216047917684924040e-01 -4.957443426106850071e-01 -2.851851187086059114e-01 6.159781862476582104e-01 8.705361529390977238e-02 -1.021051898311034156e+00 1.944193524933401640e-01 3.935278184979204563e-01 2.409111876358960291e-01 1.057378143467706533e-01 3.283326632698272962e-01 3.886183111885287145e-02 7.230889880404450798e-01 5.574060157892365419e-01 4.178377890482910528e-01 2.344562236107903541e-01 1.033665594942287047e+00 -2.997331001596906241e-01 1.634806492053095250e-01 1.175221247229860100e-02 1.534863713513811567e-01 -6.011883387131530254e-01 1.365005316334153562e-01 1.474453438439161657e-01 -4.209884720317951246e-01 -3.293496064070772777e-01 -9.032883416398823639e-01 -3.649398839361965297e-01 -1.390196400332375515e-01 1.185844032277118265e-02 3.593117813881636646e-01 3.690968123986614891e-01 3.915202069689782127e-01 2.072573436653444567e-01 -4.201452392488033705e-01 -4.235052177212293434e-01 1.671524486145221644e-01 -1.357337157403657180e-01 -1.244360730819341843e+00 -1.957954966887505421e-01 2.303893037311091282e-02 1.943300569299162561e-01 -2.245788125972711657e-01 2.534613216635943078e-01 7.792729649913588963e-01 9.384724553646639489e-02 -7.441447102991145535e-01 -1.525251371046260906e-01 -7.678779385561956827e-01 -3.804218157288626334e-01 -6.278594446752955305e-02 -9.298963879911377461e-02 1.427800253292201837e+00 2.895405708651179605e-02 -4.293307793090693769e-01 -3.344554221153224483e-02 -3.596859809847089973e-01 3.816551019383636612e-01 4.313566986438411854e-01 8.600445812789103694e-01 -2.148379753399287939e-01 7.322202755479119141e-01 2.913996035489029302e-01 7.289413496537054671e-02 -2.669300357831309589e-01 -6.922861300309632870e-01 -1.075267419564488458e+00 7.217826067847062932e-01 -6.045879889159674336e-01 8.432813519650056433e-01 -2.975761528054677862e-01 -8.288359120785691869e-02 -3.696249703956684396e-01 1.585063350764653323e-01 4.137133460584131450e-01 -2.898733195842940757e-01 -3.602140804896567135e-03
2.916469205451668323e-01 1.901862234314298516e-02 -1.337160944990509193e-01 -4.346962958731588611e-02 8.142113167576653376e-02 -1.331508787405258909e-01 -7.246194386302601265e-02 -4.351779444448131695e-01 -1.077775947824814035e-01 4.935669356181929257e-02 9.064332683470162355e-02 1.626812850683400161e-02 7.289323497903599236e-01 -4.685068696023444446e-01 -8.642653053145807340e-02 4.653143592681938112e-01 -3.606187277706467409e-01 -2.085874252473868817e-01 1.167794945885618045e-02 2.678218966579734017e-01 -2.911908736277719068e-01 4.988676883948273133e-01 5.364093549681300255e-01 5.790038481542279097e-03 -1.423213148988051735e-01 2.033758784928151597e-01 -4.160439647530523311e-01 3.593361683557023262e-03 2.488933188344401581e-01 2.655229367965712406e-01 -5.190900313832349511e-01 -3.142301600983766763e-01 -1.247126405340301808e-01 7.080507774417028610e-01 6.456796365672685667e-01 -5.049271612244145002e-01 -1.137486281712375424e-01 -4.434137300725071729e-01 -1.391996390604215705e-01 8.327281248787829493e-02 2.562141373021308288e-01 9.457139269379201130e-01 -5.928317655285980647e-02 -9.971543079490520489e-02 -1.924514997665428273e-01 -7.920750589661201824e-01 -6.591946697737174898e-02 -6.510689469207295854e-01 -1.630552902582240449e-01 -1.070790087077822528e-01 -2.711783856516390978e-01 -1.628950254769874484e-01 1.590284674762821454e-02 -1.076816387644644324e-01 4.130603336192312236e-02 1.395268990675747334e-01 4.360906977906825466e-01 -4.391689637110484518e-02 -2.797574829155474729e-01 -8.149234365104865985e-01 -4.820965269826461563e-01 -1.210658097954405987e-01 -6.491507489117842589e-01 -4.494151784665391669e-01 -1.037468300558099382e-01 4.160163539367331964e-01 -2.660784809954614555e-02 -6.684942498939101529e-01 3.129890910486867739e-01 9.154830390577930466e-01 3.347207930390165287e-01 3.614967828875601669e-02 -1.724190943223233644e-02 -7.387827791123504628e-01 -5.155103983211624108e-01 -4.351107088031092585e-01 -3.768272728381598102e-01 2.035264628559184663e-01 1.661431246756913671e-01 -3.708081247504677047e-01 -6.575073688421263496e-01 3.038148885493924256e-01 -5.099625794781363908e-01 -7.061625757022832461e-01 -2.110183227496791325e-01 -4.505888657326299063e-01 2.225912359961500775e-01 1.315057060193450256e-01 5.235760990981349616e-01 4.032570095373220198e-01 1.493999494695025521e-01 -3.524734388649002348e-01 -2.983133580054575518e-01 4.948971273670067089e-02 -4.678103827005707267e-03 -4.312846146987896895e-02 -3.934314107643751557e-01 -5.712357237270534460e-01 -2.586747697881776609e-01 3.520219249470072920e-01 1.297885336780686683e-01 4.234870296345176754e-01 -2.158752781945730975e-02 -2.332891685845822280e-02 2.767770032727128945e-02 -1.861734285545976197e-01 -3.218878433802820904e-01 -8.986861399694483221e-02 -2.394894548563513137e-01 -2.024517523373341177e-01 -8.217565455376699135e-02 3.409376214077073364e-01 -1.662955075459992271e-01 -5.736900408548906150e-01 -5.147949663463651238e-01 -1.019050495167532350e-01 2.530365904836415214e-01 -1.624087912347736973e-01 1.005227131268457308e+00 -1.588826890473463982e-01 -3.375407615484610213e-01 3.638854976544086406e-01 5.016948738738156166e-01 -2.746152823332617121e-01 -3.335758708300304298e-02 1.703151688560547439e-01 -8.064245504517684182e-01 2.786819759273712616e-01 -1.569151183016598838e-01 -3.090518415829565657e-01 7.724159844048396339e-02 -1.422173057097400606e-01 4.822392814842411946e-02 2.007007706920193868e-01 -6.105951844220404157e-01 -3.143755984899531120e-01 -5.131991883956818490e-02 -1.351932156792958473e-01 -7.302230048985858257e-02 -8.231274832946137987e-02 6.423785091956821236e-02 -5.297556227260270534e-01 -4.943008529398155299e-02 -6.056839224731395271e-02 8.242304139649522798e-02 -7.388554697896549950e-01 -4.044547268428382858e-01 4.350667151193045035e-01 -6.043063694695179067e-02 -7.048497731637264341e-01 -4.012408225608294909e-01 5.659392447028058770e-01 -3.250191317708415184e-01 -7.181185988109617391e-01 -6.896424026724323753e-02 -5.539659905220051250e-02 -8.343530829102563384e-02 -1.587561595027605077e-01 2.323904486595669908e-02 1.563565380992316522e-03 -4.929051920865255149e-02 -4.672786545494647670e-01 1.090829493314200288e-01 -4.253246813176244090e-01 -8.963572495756377823e-02 -3.879008416906500889e-01 -1.312310267341698644e-01 -3.086888650029478293e-02 -6.459714302946786835e-02 1.239868183975506577e-01 2.576114656016437743e-01 -8.048543131457771560e-01 -2.274668007994779251e-01 -2.310724380077527895e-02 4.011381739032807703e-01 -2.157020837852620110e-01 -1.252252343473712892e-01 -2.141580456652107389e-01 3.256524463368810629e-01 -5.395288105028069880e-01 -1.181284612591972788e-01 -3.658708678781826262e-01 4.634486033664481086e-02 5.079138589302800710e-01 -1.799801077937412952e-01 -1.015232672281738635e+00 -1.810674052289523370e-02 4.047947369229981662e-01 -4.488983426986296044e-01 1.264793686006584483e-01 -3.735957496878644646e-02 -4.391824921156967099e-01 1.248354360410919295e-02 1.920004332771609590e-01 1.738211780788762040e-01 5.820278396387241759e-01 -4.382202384901454084e-01 -2.039511527212103659e-01 -1.154596621058923134e-02 -6.785673218700212506e-02 3.068732553165858246e-01 -7.135839376286205737e-02 1.461720248333612249e-01 -1.916784136123276250e-01 2.692513579701575899e-01 1.073567110304748523e-01 2.787482822154693229e-01 -7.409081677694108192e-01 -2.974570066219742182e-02 -3.705872421923815385e-01 -2.993601521148096523e-01 4.145257812505370176e-01 5.564766973491274138e-01 2.814775264477907823e-01 -4.672326838826625084e-02 3.672595273155483397e-01 5.780311271140967655e-01 -1.891339223744500919e-01 -2.620829845813764103e-01 2.405116596398761686e-01 -9.376915361450320076e-05 8.489032764160243660e-01 4.228184774149260777e-02 -1.049767236936054449e+00 -3.653052788017955854e-01 -3.243190955627584526e-01 -4.130975361061915430e-01 -8.551869522035394910e-02 -3.923411943246270517e-01 3.146144830904802348e-01 1.070895579341198389e-01 -2.533537960973176739e-01 -1.850232484959718759e-01 -2.999507592245101995e-01 2.026873096719339906e-01 -4.506808991963327793e-02 2.776862215317132399e-01 -4.954648279258095922e-01 4.781255009948089801e-02 -2.845723486890251452e-01 -1.392677115065681093e-01 2.747790946409883750e-01 1.939731058618452963e-01 -4.320285458868378115e-02 -1.595664589476173956e-01 -2.048141613262396965e-01 1.306204912457629708e-01 3.705063909864317329e-01 -7.069490414348361673e-01 -7.042682149038388684e-02 9.928704525947799897e-02 4.545204490620498028e-01 1.880944511582496870e-01 -2.056949777111902189e-01 -1.213172758501815940e-01 -8.008307271600256794e-02 -6.786206687922036185e-02 -3.553202164942611402e-02 4.047595414113277501e-01 1.375881126115914288e-01 1.896921780955163062e-01 7.012401735132089975e-02 3.585446971274498518e-01 -4.654389793556524269e-01 -2.143484392014471662e-01 -4.775211745400717023e-01 8.258501427718174803e-02 2.273913537370681748e-01 -2.183104834972598718e-01 -2.377976730447843579e-01 6.509701201392840142e-01 2.820673846569373214e-02 -5.986010026240180526e-01 -3.023231903721035896e-01 -1.423662094321136440e-01 1.280801613535532402e-01 -1.238799047514331092e-01 -1.714564952385754792e-01 3.543041584835213698e-01 1.990399026229260071e-01 -1.849802398446132382e-02 -1.472336460440890893e-01 5.846428332376350789e-02 1.245830349915089397e-01 -1.276815083422887798e-01 -8.268183511908061209e-03 -6.353372815632586379e-01 3.050484075892471170e-01 -3.226526631433049991e-02 -6.122824038536075486e-01 2.567769269139977273e-01 2.499005436060453278e-01 1.905194223102214257e-01 1.291794659509687415e-01 -1.866237518022163550e-03 -4.593628828278503717e-03 5.935736900242130076e-01 8.491934884928709071e-02 -7.358279535580129760e-02 -2.650972350024636270e-01 -6.495470587969347231e-02
-2.643669389518504137e-02 4.882882519466610199e-02 -7.767776233786395368e-01 -1.579872268616310804e-01 -6.476452190002681686e-01 4.853302729289889206e-02 -2.994744637626741146e-01 3.674040041506733689e-01 -1.847816879005124147e-01 -1.312654662899340186e-01 2.744409377718660670e-01 2.301898261201975118e-02 -4.206742588410029571e-01 1.950657091431614309e-01 1.513923865197436616e-02 -6.112126908743552578e-01 -3.119824035009998719e-01 -8.978866617384401172e-02 1.930503090041616188e-01 -7.593321895311790082e-02 7.622038363918489656e-01 -2.944498302867644135e-01 -2.177507567045842418e-01 -6.568077062529133203e-02 3.004613730160854979e-01 -1.746667420581703434e-01 1.467854483499518026e-01 4.026301593305628979e-01 2.087390191032422182e-01 -9.248064793516973248e-02 -9.882777185531450848e-02 5.048663444195595346e-02 -1.706016913910649718e-02 -2.400391350348079766e-01 -5.475712948407111813e-02 -2.614246172672259338e-01 4.392664802875858032e-01 1.250675951969702493e-01 1.184319656278157024e-01 -1.775947623769691952e-01 1.836041468125526877e-01 -5.905540167647218563e-01 -4.857429300153452006e-02 7.308782675030489617e-03 2.102856947321964098e-01 2.943052674161070192e-01 -6.746308711619908305e-02 4.476431774945464626e-01 3.063358421457001435e-01 -1.053066745700837054e-01 1.561653245030089898e-01 4.410992187296292055e-02 -1.529836442571372024e-01 -3.465722744341178663e-01 2.586068576028979771e-01 -6.021333879026447011e-01 1.252347940586901187e-01 8.681641492288897505e-03 4.578417321080330282e-02 1.274454484962215528e-01 -2.352394144139996479e-02 2.431501316371403598e-01 7.063232932063354466e-03 9.575738751893682343e-02 -5.688393747906674847e-01 -4.628419221888225299e-01 4.517120323942755422e-02 -2.245898401713620207e-01 -9.697552722437872974e-02 8.511520609926659375e-03 -4.723059753132892724e-01 -6.933394893519409519e-02 -8.673772624640980755e-01 9.282247429838393071e-02 2.141213486694420465e-01 -3.464715654265246303e-03 5.015003118419110451e-02 2.249491731886359147e-02 3.035542301218821515e-01 1.799117484904465547e-01 -7.263836329674788761e-02 -8.700673849678149108e-02 -1.489916018112611429e-01 5.106458021913811152e-01 -2.092221146228976369e-01 -3.657346015164603670e-01 2.000371432656870493e-02 1.507215024867893660e-01 7.222054628174705559e-01 4.634357655480708660e-01 4.189626421307164894e-01 9.878414548670443329e-01 2.824921840890702307e-01 1.882357629502189600e-01 1.429009196418229155e-01 -2.147514310244159064e-01 5.653106520727722017e-01 -2.109012560860177299e-01 -4.333011737296059152e-01 -5.606292260422006679e-01 -7.383566955022944356e-01 -6.546463779507545322e-01 5.082878488529184863e-02 -2.580524830810023568e-02 3.348938613162990019e-01 3.614256731274179124e-01 -2.732645231280523279e-01 8.681291306169470687e-03 -1.201563868839009563e-01 -1.837335548394755658e-01 3.505029731090223977e-01 5.635614737578585887e-01 -4.896904549418593655e-01 -3.515816617808208422e-01 -7.394246998837215867e-02 -2.009177028032175238e-01 -5.149670123478676809e-01 -1.798189650372072901e-01 -8.204001754184118145e-01 6.851430503720451481e-01 -2.573044047584180372e-01 1.558598881063057717e-01 -9.257047372126098184e-01 -6.002455846221401575e-02 -2.572648851065931774e-01 2.118312051610711511e-01 -5.687389379512436394e-01 -7.191768811379913862e-01 -5.870369163393527288e-03 -1.448025486634813008e-01 -4.031101600573854804e-01 7.036041891174828200e-02 1.962482887101393569e-01 8.617863045806587463e-01 -3.673447739663766587e-01 2.526967650601245619e-01 -1.985248993076108026e-01 -7.037555036318517143e-02 -3.670576985690546801e-01 -2.784125373628943412e-01 -5.459172651675330001e-02 -4.043332932077115527e-01 7.298239795575391098e-02 -5.633709957733532558e-01 -1.080905206344296154e-01 -2.737539521515010565e-01 1.106566233671711474e+00 4.637304307171627449e-02 7.691178320560336512e-02 1.097642742900812735e-01 1.354447246522352821e-01 -4.556059498155630716e-01 1.062401406308119828e-01 -4.047791416065023989e-02 -8.068508220392900387e-01 -1.974200392324180486e-01 4.089373359119651274e-01 2.643523317907712222e-01 -2.000880399972370383e-01 7.903406039184085463e-01 1.012055642589590326e-01 1.355470812756252030e-01 5.770825583336407494e-01 7.478827832555251520e-02 1.317203796440594328e-02 -1.071519322380895395e-01 2.882552463341480631e-01 -2.436096525105721222e-01 -1.488529581432380955e-01 3.684006880048839583e-01 7.980802107360220055e-02 -4.770962890402439260e-01 -2.187577312183785760e-01 -7.673547644052013117e-02 -6.440100954277304668e-01 4.689322120495150736e-01 1.382155902220468802e+00 -1.412083381453552167e-01 -3.836361002930550879e-02 4.070005358646132665e-01 -4.080806222935079997e-01 3.207558020871856819e-01 5.763172951757359122e-03 -2.180808352973112041e-01 -1.304657795890034888e-01 2.134912187064911260e-01 3.765906952333091806e-01 1.016059775501235579e-01 -1.075807981960048565e-01 4.923964044003854151e-02 -1.237470304626130668e-01 9.676408505951842320e-01 -1.259816968449959662e-01 -1.181038174356534992e-01 -1.406834614217226942e-01 -4.263282563647437517e-01 8.217784263827224156e-02 -4.531563778351808958e-02 9.463610807186806362e-01 8.047989991448123437e-02 1.322806424400683745e-01 7.193283873217676955e-03 6.675403327343130966e-02 3.981748336375348640e-01 -1.316665022260956330e-01 1.102458266000177767e-01 5.554542600735932339e-02 3.567550195704579097e-01 -6.709297202743218502e-01 7.255112625276179950e-01 -5.072324634144955713e-01 2.352113576432023345e-01 -4.316232474271821107e-01 2.447629587060519418e-01 5.597512310192449547e-01 -7.561229385918375456e-01 -5.203345384928961259e-01 -5.446696309274147441e-02 4.786347189914290090e-01 -1.336435455605134992e-01 1.916158384228972555e-01 7.448343321698629171e-02 6.119164497815639953e-02 -4.218795117322942656e-01 -4.333707093027651669e-01 1.926976715380944172e-01 1.585275308927525384e-01 -1.443542832657300212e-01 -8.914370007854578726e-02 3.806929618879484889e-01 -2.147601231211498374e-01 -2.901518333683529849e-01 4.182795438734087101e-01 7.141286058520855962e-01 -4.976273354769312207e-01 6.291308121656794539e-01 6.159216164553823873e-05 -3.658226626750237243e-01 5.117704522512832310e-02 -6.016981115052978668e-02 -3.478134548847966467e-01 -2.722560075071219221e-01 -5.526226839873380481e-01 2.042976545279978282e-02 -3.801986593199650488e-01 5.949858784313115379e-02 9.680462829420306836e-02 7.095397577079957940e-02 -3.017470894931849612e-01 5.954654445535201290e-01 -2.911652071255942387e-01 9.609514770611968792e-01 4.164058448137581969e-01 -3.502459812386853888e-01 3.267091609587949863e-01 -2.509079319091944704e-01 -9.846827310749257933e-02 -3.583833490886512707e-01 2.665494212928137818e-01 4.467221705350929439e-01 -8.723600712480794606e-02 -1.106902245863649464e-02 1.228048639049272167e-02 -1.644900094436671512e-02 4.602931151813411878e-03 -1.383984926461708231e-01 -1.913006449691992683e-01 2.410504511170975528e-01 -1.853775289268842497e-01 -1.911269828277336602e-01 1.567062246944467274e-01 -1.648527912267580831e-01 7.787231457507808319e-01 7.512696061506785039e-02 -2.027013850500735126e-01 -2.752421344674362280e-01 7.461826651923118836e-02 -8.661841993544017182e-02 1.589386791720477088e-01 -3.495121448949254500e-02 -3.593384533706824868e-01 3.570560154632232419e-01 -1.958438072180059275e-01 -6.269927925394614965e-01 -2.560186825975490632e-01 1.401188304283012831e-01 -2.513727919822698609e-01 -2.208569908446681440e-01 1.095967423486471359e-01 5.595954388228261377e-03 4.665649131048050235e-01 -3.238263615093405767e-01 1.115336746800331541e-01 4.288985509991676687e-02 6.770621717947445939e-01 -1.992076004256118638e-01 -1.011655200358494433e-01 -2.503753174981453444e-01 -3.265470765509819184e-01 -8.337861497314895398e-02 -6.424902724255339426e-02
-2.632265317861658960e-01 3.199905874307337195e-01 1.166320235393416782e+00 -6.121065410422718012e-01 3.214996020628207996e-01 -4.300211135502916560e-01 2.884522466595399459e-01 2.909619664784426907e-02 4.200280469099850755e-01 -1.290944283274217952e-01 5.827441805835902322e-01 -8.484124512389110695e-01 -9.572673422509070384e-01 -1.591672557043490033e-01 -2.666266611170752254e-01 3.170246711395521833e-01 -1.866674295487517898e-01 -9.388195353998070314e-02 -1.026138594806417892e+00 7.553050915966821877e-02 -2.568186073145399817e-01 1.831636813356028737e-01 -3.931160541669984076e-01 -1.807800424818792329e-01 -7.774745550202154520e-01 1.618225740423137604e-02 -5.628346202035731105e-01 -5.761785651954339782e-01 4.538590408770049392e-03 2.339526093373278381e-01 -2.303503868426882151e-01 4.875391831211668969e-01 -1.311222209468116129e-01 -4.195464033839886586e-02 -1.347849308347112807e+00 1.500600724921907769e-01 1.001484140804344891e+00 1.767170575652279030e-01 1.771609165344731895e-01 -7.488990874156979671e-02 -3.876105596225045136e-01 6.138972514543056258e-01 -2.341923488111736021e-03 1.097828555908562063e-02 2.468049885925138742e-01 -8.295631056078524024e-01 -3.356555917753774598e-01 -4.487297102857115694e-01 1.252941643670350269e-01 -6.616494851479157169e-02 -1.605302512097425971e-01 -2.598242407384054320e-01 -4.621887320769053065e-01 1.639484172704497311e-01 -3.790993825486523860e-01 6.051742136592973276e-02 -8.987103690659729027e-01 -1.235204364171666180e-01 -1.779572807208793517e-01 1.573125653785416023e-01 -1.082965877220229758e-02 -8.336550075891180356e-01 -1.720878212880669889e-01 -1.838424107658169215e-01 4.103043757968828920e-01 -4.744961310235876195e-02 1.185780794138050209e-01 8.828662044917747753e-01 2.404068898667609810e-01 3.947516743845764786e-01 -4.694987438602916258e-02 -4.475533005827903588e-01 2.972100348458493468e-01 -4.694914209113891790e-01 5.484061664560170302e-01 -1.781277559450392123e-01 -3.052759863725592049e-01 -8.454434484793643678e-02 2.026703618726726774e-01 1.378360451469787529e-01 -3.325395115368989796e-01 7.412557974285461926e-01 1.602531753845001239e-01 3.974952109620834562e-01 -1.870693828831389641e-02 1.235832924244473219e-02 1.527096873076606853e-01 4.352302949245971386e-01 -2.749579812022821534e-01 -4.219663350765683885e-01 -1.475498258069789237e-01 -5.317879800671450052e-01 4.592807659618067251e-01 -1.099279194188534647e-01 4.829632899790303191e-01 6.325234793251394150e-01 -4.666744229516887610e-01 5.098699336939476190e-01 7.730620828665862865e-01 -5.848904992968342320e-01 4.853105216483537543e-01 -4.740960048942442495e-01 1.299362934733195030e-01 1.706588449981508715e-01 -8.137735598039637086e-01 6.838993268458148922e-02 7.806928311581849689e-02 -7.164737140580985930e-02 -3.858648601852502358e-01 -2.953738883186128317e-01 1.159888265282341457e+00 -5.243592663265095322e-01 -2.902240921091749082e-02 -2.283901313312756143e-01 2.068654998759561492e-01 -1.674387617928930205e-01 -2.790088791437239646e-01 -9.337853606553606634e-01 -9.564509316173819276e-01 -1.006059725714141539e-01 1.611037483688365635e-01 3.804583741351450499e-01 1.848955527536295940e-01 -3.279136198145303771e-01 -2.855076887951919198e-05 -5.809237546643079009e-01 -4.763462097325608657e-01 -6.301141304406820964e-01 1.799978274401080602e-01 -7.543649135754409985e-01 1.023447151215506751e-01 -5.642960511443513294e-01 -5.089777345510623219e-01 -2.258569490699852411e-01 -3.642241375029802164e-01 5.485799145181408966e-03 -5.984985158515562786e-02 1.944241231090814426e-01 1.732047750407706976e-01 -1.530159335431864331e-01 3.755911313247340400e-01 -5.248267892420267061e-02 2.344175650454740356e-01 1.129067929832323347e-01 2.694334305189560741e-01 -1.396297713579451871e+00 -1.273829798041433037e+00 1.132262334098928652e-01 -1.234767081089588880e-01 -7.861304968349271949e-01 1.073508660325479536e+00 -2.107775775556132714e-01 -3.376270590955641193e-01 1.857439022347634472e-02 -4.845332861026901972e-01 -6.781036856690915958e-03 -7.699082181251598600e-02 -1.292284016754707832e-01 2.103164573850777735e-02 -1.510547452069080476e+00 -6.136011039341342233e-02 1.383559143876974262e-01 3.589070057259412944e-02 9.518655022598507820e-01 1.103723126174783742e-01 -9.746593165786646140e-02 -4.998940330227449880e-01 -3.306372557493812980e-01 -2.107045776375248425e-01 -6.442106435587752200e-01 1.994465412304395335e-01 -1.215175401734561067e+00 -1.724440921884213829e-01 4.225973772805781403e-02 -4.780785280326842884e-02 -1.623168682950995867e-01 -3.495885077967852417e-01 4.038461308857378695e-02 2.780244392750912952e-01 -7.163905693181495948e-01 6.140136843532674193e-01 -9.895440545327324200e-01 -1.793480163101337510e-01 1.115073422504500034e-01 2.458892257573137285e-01 -6.602000228427151729e-01 2.286540092499135257e-01 7.399938680169874418e-03 -1.204106788535385331e+00 -1.083703213594020415e-01 -2.720078004499190127e-01 -7.375924330441371857e-02 -9.974699313717537708e-01 -9.199606398657877993e-02 -6.445626572266696108e-01 -6.147061458696478908e-01 -7.113121182653240338e-01 2.313916424232595748e-01 6.220046068499599998e-03 1.250193970895381312e-01 -3.750482282132806544e-01 -8.217654225683195257e-01 -2.404480969786409184e-01 -2.626217521953688391e-02 2.983382208093349197e-01 2.577519658646191814e-01 -9.481696223573299331e-01 -6.432640454188679469e-01 6.423292310914711090e-01 -3.699786420194966508e-01 -7.108533803954335539e-01 4.471681941197763049e-02 6.688141181544271507e-01 -9.619103223324378116e-02 -1.046319884769122410e+00 6.593147795798121047e-01 -1.350035854284423187e-01 -3.619671136206267792e-02 -6.256598695843879065e-01 9.935961644105298363e-02 6.564461975146609896e-02 2.812523342699363438e-01 2.739198757452843691e-01 -3.716157246753055976e-02 -3.033392300620394444e-01 -1.340915995564026242e-01 2.006761860407859088e-01 -7.221792811517997734e-02 -1.444617681204743154e-01 4.925047315825712979e-01 -9.786087036293290853e-02 -2.824833724344550379e-01 2.276282885659479394e-02 -5.677962878925642970e-02 7.936059335865234265e-01 1.299418560613603002e-01 9.561412401950344919e-02 -3.742197643168465593e-01 -1.487577007537574658e-01 1.041939635423733801e+00 -2.396380010864448129e-01 3.664501637284542368e-01 -1.682246502704045632e-01 -2.174828964185214486e-02 -2.955746419383670776e-01 -3.730891220475794356e-01 1.966376673735301395e-01 -2.917188439829955515e-02 -1.531921436049757945e-01 -8.972612955043719474e-01 -5.189214106459125730e-01 -3.745813487120679963e-01 -1.714169885428645790e-01 -2.089547625357573157e-01 1.857361225581489680e-02 2.058559068570843531e-01 3.024499727469588950e-01 -5.234607921944665065e-01 3.953143568955837517e-01 1.576464204574381245e-01 -6.400953574159496950e-01 -3.276920906043492843e-02 -5.875345932772483293e-01 -2.559461279485310548e-01 -4.050279036781115338e-02 -2.006561209638491050e-01 -5.337680182199552315e-01 7.124772886255575921e-01 2.635523762078453291e-01 -3.370612117735959923e-01 -2.888257815931387085e-01 -1.664370144729400078e-02 4.161867167646378651e-01 1.171501451600206689e+00 -4.851908598165636799e-01 1.674187457632891549e-02 -1.383890143769246350e-01 -4.676612006345783890e-01 7.403748316546799879e-01 -1.928987816135497024e-01 -2.245728365665227988e-01 -2.697093464673113727e-01 1.921679871034511281e-02 4.195575386381532601e-01 -1.147108744326146429e-01 3.204518969203024037e-02 -2.497259530803261005e-02 3.605783792926860465e-01 -1.717627975441497201e-01 -2.514066237022816869e-02 -2.350557373051893328e-01 -3.411704599509943203e-01 -5.311255837412136582e-01 -1.182647607524691002e+00 -2.968314292518950143e-03 -3.982995402299254750e-01 1.244581568899496282e-01 -5.086923026392206060e-01 2.864413297452034768e-01 2.685680324877807654e-02 -1.748252026920012539e-02
5.794340891657756565e-01 5.600137913257637878e-01 -1.941919093200915672e-02 -3.022803103072650432e-01 -1.891299285976194566e-01 5.897652580245242582e-02 1.029083180690865476e-02 1.124960569449082598e-01 3.281617817607426768e-01 -5.035888115750336569e-01 -4.383079957622095651e-02 -1.831169545691454237e-01 -3.661326224525209283e-01 -1.468093409048899269e-02 -3.787676068418718844e-02 -1.571007236727167411e-01 -5.873987536450949731e-01 -5.486116574751636055e-01 -8.145167350047773924e-01 -8.427834947878974914e-01 -3.531832259408826391e-01 -5.221507988404372469e-01 -6.474448974003929602e-02 7.114510911941479554e-01 2.991430904447492933e-01 1.251316544500724326e-01 -2.841542902554567429e-01 2.065076321494100364e-01 -1.778881244509731840e-01 4.132051895110849804e-01 -5.964685557034480334e-01 4.081644833529990968e-01 -3.140419960402202060e-02 -1.455964424109249533e-01 3.081356835512906733e-01 -1.332268984803819667e-01 6.188945128110460298e-02 1.153749574039272668e-01 7.799985216604496951e-01 6.759912742327921498e-01 -8.485426251393320962e-01 5.667569476041799392e-01 -1.961839116256493543e-01 -7.263213973410401758e-01 1.187584220241838864e-02 -1.495212069731656490e-01 -1.599553399259611708e-01 -1.671189754778727554e+00 1.961636645421514225e-01 3.798137309758890523e-01 -6.551596938353752009e-01 5.145256631214123466e-02 -7.793750153038553341e-02 2.445194526693038675e-02 5.142879539923276289e-01 -1.573940997269346331e-01 -2.185764308831941172e-01 4.851582929725281601e-01 1.183357629626337060e-01 4.045682116066514622e-01 9.710966164802605285e-03 7.338778333335581605e-01 1.479751777246259836e+00 -7.916580091233767213e-02 -1.386346774762071965e-01 -1.049879576841263873e-01 1.982862179617023435e-01 -2.599660876452626335e-01 -2.804691089717873537e-02 3.255550678891679373e-01 5.253860118593694367e-02 -2.939481044135837107e-01 4.129274719160701546e-01 -1.295879551715291636e-02 3.222864388469025287e-02 -2.081875967097329971e-01 2.229386942077802095e-02 5.429381204725387544e-01 -9.087545624949688178e-03 4.750855659734219000e-02 -9.834216277467824341e-01 7.655979260117128093e-02 1.610755188486838463e-01 -9.802113368141246452e-01 -5.748591901645520030e-01 -5.362827735086260483e-02 -1.063153734800437872e-01 -1.067548623520116619e-01 -5.582906915496569367e-01 -4.473767409477220625e-01 1.158565364403987274e-01 -1.380780804025541819e+00 -3.278879374008220049e-02 -8.286792114402756482e-02 7.910262022026947060e-01 -2.285416380069494602e-01 2.248654586389416399e-01 -4.405367368402489658e-01 5.535715848106647075e-01 6.906984801639612925e-01 -4.629983888131866676e-01 1.871418427170971621e-01 4.939661877687630542e-01 4.421843531582535236e-02 -7.099104382520783629e-02 4.520180848066744916e-01 1.316724310617879201e+00 3.813849751576633973e-01 4.338516872516308687e-01 -7.049401321011367072e-01 -1.211628863588259275e+00 -7.201151681670195925e-01 6.043673975185734903e-01 -1.166510121335064820e-01 -1.378896912923510132e-01 2.676406662497406996e-01 -5.110345787069084933e-01 -5.225073338345549434e-01 -2.806944536366743348e-01 -5.688683666249081394e-01 5.123054722746016587e-01 1.897183666693496099e-02 -4.605577980819562378e-01 7.200909558891908091e-01 -8.357768985116953084e-03 -4.128416716532099517e-01 9.654903125168026734e-02 5.720730969220845230e-01 1.058840254566741024e+00 5.921307630729134575e-01 -1.728312063221357220e-01 -7.616879783704512408e-02 -7.050369336853494762e-01 -7.971867115550712590e-01 3.388421345026506604e-01 4.920791725647605253e-02 -2.809155274224952592e-01 -1.296875499461253578e-01 -8.984428952163338311e-02 7.567141119237734415e-02 3.404594688453500551e-01 -1.513052628846070780e-01 4.717938087100465028e-01 2.601848650131510232e-01 3.360994489446567646e-01 -6.703922726429041301e-01 -7.917273931887677252e-01 4.802005209307860789e-03 2.547690955830681989e-03 1.634703986119462327e-01 9.167719456983473014e-01 2.409983632023943514e-02 6.233711825521950911e-02 3.111511180792536080e-01 -9.448608486661331796e-01 5.384272524095164159e-02 -2.763516188027143050e-01 6.787251716601273577e-01 1.541028792425601368e-02 -1.341708244964871399e+00 -3.503833371632679716e-01 1.278490764360991870e-02 3.961344515860912296e-02 -9.688253342836053994e-01 -2.859994749118143220e-01 -1.798407806769021511e-01 1.367346972815247641e-02 6.046043213440145392e-01 2.788453548151167971e-01 -8.742629333015398962e-02 1.316209820098851180e-01 6.951293070380809569e-01 -7.821265052119941164e-02 1.289196355047730058e-01 -5.607152258734594830e-02 3.540707812958453493e-01 -8.503550380135787012e-01 2.532615214866441589e-01 -7.018707127883280217e-01 3.487895940477539480e-01 7.055250770461877208e-01 -5.322392194994433057e-01 -2.493597073464277891e-01 -4.771720217680943121e-01 -1.682801477545801117e-01 5.537671818359229947e-01 1.385469863626363207e-01 -4.467365166981693281e-01 -7.629148633614488695e-01 3.862053720046689786e-01 1.116194266157836262e-01 -9.405220493243097168e-01 1.683376494275270752e-01 -4.113219303446147279e-02 -1.839816054958705871e-01 -9.203001436369441235e-01 2.890708485416485507e-01 8.175716544547160375e-03 -1.104695949876963290e+00 -3.282225908897712374e-02 3.546383524022663214e-01 -2.534740914963797692e-02 -9.591237732191947030e-02 1.684162303569942953e-01 3.558995366827298334e-01 -3.346930201805974336e-01 5.932651518075663377e-01 -4.033920853138641682e-01 -6.290975204662699882e-01 -6.318003311843072289e-01 -3.028511845088112109e-01 -3.508245400280975979e-01 -5.607342595593223233e-01 -1.052045154178428699e-01 -1.731257075607274709e+00 8.038034417468874204e-02 -1.252343989180061123e-01 -5.091116647080335955e-01 -3.628592228531715702e-01 1.271298523843879535e-01 1.925615053547134747e-01 8.517177073013799671e-01 -3.293291695713668754e-01 4.049884369556023822e-01 2.876369884391644649e-01 3.631174809003557269e-01 6.681609482940783495e-01 2.618706601567334924e-01 -2.645998315392562028e-01 -7.933061761625636032e-01 2.204020939772128318e-01 1.778418357584956363e-03 -2.326773221433570127e-01 -7.780806841613697733e-01 -2.342339226280288345e-01 3.728263127662832521e-01 1.961146422761881909e-03 -8.966236160272557376e-02 -2.994481579214443023e-01 7.952581896524023308e-02 5.097577227892913232e-01 -1.501306568695499610e-01 1.423407834691599039e-01 -1.646222957745584747e-01 -1.164148617642647154e-01 5.343005003132894615e-01 -1.574298670239473175e-01 -8.674059252664478858e-02 -2.859355432793303509e-01 1.122198357697380966e-01 -9.709935783798148701e-02 -1.646817321954547664e+00 -6.557513614768174515e-01 2.567478758422432894e-01 -9.719251523770147672e-02 -2.148388325727211834e-01 1.041032736367133726e-01 -2.474270872590637882e-01 -3.964707869811514018e-01 -1.202351542987348393e-01 4.826767789456868352e-01 -1.620486990605599920e-01 2.517881427199782918e-01 -3.146744605355771829e-01 -6.146639510239249038e-01 1.790518209979205799e-01 3.838386437193161971e-01 -6.658123574140019096e-01 -2.255831082385333641e-01 -1.166445235972862204e-01 1.602345755216685597e-01 6.617237306726264645e-02 1.872948164761603640e-01 -5.260147181340567579e-01 1.472103761179019421e-01 4.000097611024154287e-01 1.749318444391584002e-02 -3.864223394606684531e-03 -3.249928349225964519e-01 9.886805754542432600e-02 -3.063119325490769040e-01 -2.258492735627595782e-01 3.679332719693640952e-01 6.592895226390236285e-01 -5.390338599982007206e-02 -1.841794256157448795e-01 3.726681823856337616e-01 -9.803859506551415581e-01 2.058500782250092531e-01 -1.883341716696413370e-01 5.384077816990813226e-01 1.588541680237147424e-01 -3.635105005545949397e-01 2.716918264669662686e-01 -6.342386003946832648e-03 1.419696614705165949e-01 -3.848303072689948645e-01 -4.225352689916876403e-01 6.459461346269068649e-01 1.915322172299721848e-01 3.185126302257327430e-02
